SVM-light Version V6.20
0 # kernel type
3 # kernel parameter -d 
1 # kernel parameter -g 
1 # kernel parameter -s 
1 # kernel parameter -r 
empty# kernel parameter -u 
93 # highest feature index 
81 # number of training documents 
2 # number of support vectors plus 1 
0 # threshold b, each following line is a SV (starting with alpha*y)
1 1:-0.51643288 2:0.53051513 3:3.6597874 4:-3.6600788 5:0.033448983 6:0.1463933 7:0.83059281 8:0.51285297 9:0.51285297 10:0.51285297 11:0.51285297 12:0.51285297 13:0.51285297 14:0.51285297 15:0.51285297 16:0.51285297 17:0.51285297 18:0.51285297 19:0.51285297 20:0.51285297 21:0.89264315 22:0.89264315 23:0.89264315 24:0.89264315 25:0.89264315 26:0.89264315 27:0.89264315 28:0.89264315 29:0.89264315 30:0.69519073 31:0.69519073 32:0.69519073 33:1.3167439 34:1.3167439 35:1.3167439 36:1.3167439 37:1.3167439 38:1.3167439 39:1.3167439 40:1.3167439 41:1.3167439 42:-7.3960843 43:1.6435682 44:1.6435682 45:1.6435682 46:1.6435682 47:1.4416124 48:1.4416124 49:1.4416124 50:1.4416124 51:1.4416124 52:1.4416124 53:1.4416124 54:1.4416124 55:1.4416124 56:1.4416124 57:1.4416124 58:2.3524258 59:0.52722198 60:0.52722198 61:0.52722198 62:0.52722198 63:0.52722198 64:-3.3935001 65:-3.3935001 66:-3.3935001 67:-3.3935001 68:0.36699909 69:0.36699909 70:0.36699909 71:0.36699909 72:0.36699909 73:0.36699909 74:0.36699909 75:0.36699909 76:0.36699909 77:0.36699909 78:0.36699909 79:0.36699909 80:0.36699909 81:0.36699909 82:0.36699909 83:0.36699909 84:0.36699909 85:0.36699909 86:1.0399971 87:1.0399971 88:1.0399971 89:1.0399971 90:1.0399971 91:1.0399971 92:1.0399971 #
