SVM-light Version V6.20
0 # kernel type
3 # kernel parameter -d 
1 # kernel parameter -g 
1 # kernel parameter -s 
1 # kernel parameter -r 
empty# kernel parameter -u 
95 # highest feature index 
89 # number of training documents 
2 # number of support vectors plus 1 
0 # threshold b, each following line is a SV (starting with alpha*y)
1 1:-0.47953108 2:0.58452117 3:3.1600485 4:-3.1608071 5:-0.0090274839 6:0.14872517 7:1.2544986 8:3.085094 9:3.085094 10:3.085094 11:3.085094 12:3.085094 13:3.085094 14:3.085094 15:3.085094 16:3.085094 17:3.085094 18:3.085094 19:3.085094 20:3.085094 21:0.69831085 22:0.69831085 23:0.69831085 24:0.69831085 25:0.69831085 26:0.69831085 27:0.69831085 28:0.69831085 29:0.69831085 30:-0.30540362 31:-0.30540362 32:-0.30540362 33:1.162822 34:1.162822 35:1.162822 36:1.162822 37:1.162822 38:1.162822 39:1.162822 40:1.162822 41:1.162822 42:-9.0638151 43:1.6601471 44:1.6601471 45:1.6601471 46:1.6601471 47:1.3628309 48:1.3628309 49:1.3628309 50:1.3628309 51:1.3628309 52:1.3628309 53:1.3628309 54:1.3628309 55:1.3628309 56:1.3628309 57:1.3628309 58:3.2625389 59:0.22333185 60:0.22333185 61:0.22333185 62:0.22333185 63:0.22333185 64:-3.5259962 65:-3.5259962 66:-3.5259962 67:-3.5259962 68:0.40174717 69:0.40174717 70:0.40174717 71:0.40174717 72:0.40174717 73:0.40174717 74:0.40174717 75:0.40174717 76:0.40174717 77:0.40174717 78:0.40174717 79:0.40174717 80:0.40174717 81:0.40174717 82:0.40174717 83:0.40174717 84:0.40174717 85:0.40174717 86:1.0372107 87:1.0372107 88:1.0372107 89:1.0372107 90:1.0372107 91:1.0372107 92:1.0372107 94:35.187599 #
