SVM-light Version V6.20
0 # kernel type
3 # kernel parameter -d 
1 # kernel parameter -g 
1 # kernel parameter -s 
1 # kernel parameter -r 
empty# kernel parameter -u 
184 # highest feature index 
114 # number of training documents 
2 # number of support vectors plus 1 
0 # threshold b, each following line is a SV (starting with alpha*y)
1 1:-0.41195589 2:0.59826738 3:4.6983514 4:-4.6986327 5:-0.0065121283 6:0.14966401 7:2.0702717 8:9.9531116 9:-0.94461727 10:2.5415747 11:-24.2714 12:-15.659221 13:12.209781 14:-10.604783 15:2.0192428 16:6.1757698 17:-24.837578 18:16.114893 19:4.2149544 20:0.73518598 21:5.0141959 22:-5.7578597 23:-0.48815441 24:9.1625776 25:9.3754082 26:0.27521315 27:-12.528268 28:3.3421252 29:9.4704819 30:-13.272902 31:0.94173038 32:19.40905 33:-11.895782 34:-15.580139 35:9.6743288 36:-27.281128 37:-16.596651 38:36.441505 39:-18.299835 40:7.7654486 41:-6.3241372 42:-5.3570523 43:10.971782 44:2.8888371 45:11.538193 46:-11.41083 47:-7.3548822 48:21.534769 49:16.694645 50:0.52372205 51:0.52372205 52:0.52372205 53:0.52372205 54:0.52372205 55:0.52372205 56:0.52372205 57:0.52372205 58:0.52372205 59:0.52372205 60:0.52372205 61:0.52372205 62:0.52372205 63:-0.0084220525 64:-0.0084220525 65:-0.0084220525 66:-0.0084220525 67:-0.0084220525 68:-0.0084220525 69:-0.0084220525 70:-0.0084220525 71:-0.0084220525 72:4.2149544 73:4.2149544 74:4.2149544 75:3.7331617 76:3.7331617 77:3.7331617 78:3.7331617 79:3.7331617 80:3.7331617 81:3.7331617 82:3.7331617 83:3.7331617 84:-10.604783 85:2.3468375 86:2.3468375 87:2.3468375 88:2.3468375 89:0.46476659 90:0.46476659 91:0.46476659 92:0.46476659 93:0.46476659 94:0.46476659 95:0.46476659 96:0.46476659 97:0.46476659 98:0.46476659 99:0.46476659 100:2.0192428 101:1.5850462 102:1.5850462 103:1.5850462 104:1.5850462 105:1.5850462 106:-4.1125593 107:-4.1125593 108:-4.1125593 109:-4.1125593 110:0.80779833 111:0.80779833 112:0.80779833 113:0.80779833 114:0.80779833 115:0.80779833 116:0.80779833 117:0.80779833 118:0.80779833 119:0.80779833 120:0.80779833 121:0.80779833 122:0.80779833 123:0.80779833 124:0.80779833 125:0.80779833 126:0.80779833 127:0.80779833 128:-0.96992874 129:-0.96992874 130:-0.96992874 131:-0.96992874 132:-0.96992874 133:-0.96992874 134:-0.96992874 136:21.568586 137:-5.273912 138:-4.8950768 139:-5.332839 140:8.804719 141:4.2287927 142:16.299969 143:0.78667939 144:6.7043729 145:11.567584 146:20.114225 147:-11.74532 148:14.559489 149:5.8100882 150:-28.105751 151:-30.395916 152:8.4401684 153:-2.6342063 154:0.90468419 155:-34.086475 156:-35.935917 157:16.98613 158:3.8028886 159:11.500329 160:-3.2627606 161:5.8053937 162:8.2007656 163:-15.776489 164:-28.560057 165:14.066547 166:2.3702598 167:41.848297 168:9.7220984 169:15.311184 170:7.6073351 171:-18.145947 172:-14.235424 173:14.303275 174:10.888112 175:-9.2602224 176:-29.027596 177:8.4475183 178:-19.269247 179:-23.358036 180:12.339527 181:-2.4874635 182:17.223473 183:1.5759733 #
