SVM-light Version V6.20
0 # kernel type
3 # kernel parameter -d 
1 # kernel parameter -g 
1 # kernel parameter -s 
1 # kernel parameter -r 
empty# kernel parameter -u 
95 # highest feature index 
81 # number of training documents 
2 # number of support vectors plus 1 
0 # threshold b, each following line is a SV (starting with alpha*y)
1 1:-0.50102133 2:0.69217557 3:2.852381 4:-2.8525152 5:-0.0039531812 6:0.1528789 7:1.148082 8:2.8216162 9:2.8216162 10:2.8216162 11:2.8216162 12:2.8216162 13:2.8216162 14:2.8216162 15:2.8216162 16:2.8216162 17:2.8216162 18:2.8216162 19:2.8216162 20:2.8216162 21:0.70392454 22:0.70392454 23:0.70392454 24:0.70392454 25:0.70392454 26:0.70392454 27:0.70392454 28:0.70392454 29:0.70392454 30:0.041606057 31:0.041606057 32:0.041606057 33:1.1972964 34:1.1972964 35:1.1972964 36:1.1972964 37:1.1972964 38:1.1972964 39:1.1972964 40:1.1972964 41:1.1972964 42:-9.3329515 43:1.7091739 44:1.7091739 45:1.7091739 46:1.7091739 47:1.3448478 48:1.3448478 49:1.3448478 50:1.3448478 51:1.3448478 52:1.3448478 53:1.3448478 54:1.3448478 55:1.3448478 56:1.3448478 57:1.3448478 58:3.0385051 59:0.30777019 60:0.30777019 61:0.30777019 62:0.30777019 63:0.30777019 64:-3.1451023 65:-3.1451023 66:-3.1451023 67:-3.1451023 68:0.33437261 69:0.33437261 70:0.33437261 71:0.33437261 72:0.33437261 73:0.33437261 74:0.33437261 75:0.33437261 76:0.33437261 77:0.33437261 78:0.33437261 79:0.33437261 80:0.33437261 81:0.33437261 82:0.33437261 83:0.33437261 84:0.33437261 85:0.33437261 86:0.97875589 87:0.97875589 88:0.97875589 89:0.97875589 90:0.97875589 91:0.97875589 92:0.97875589 94:30.995327 #
